digraph Tree {
node [shape=box, style="filled, rounded", color="black", fontname="helvetica"] ;
edge [fontname="helvetica"] ;
0 [label="x1 <= 0.835\nsquared_error = 0.101\nsamples = 200\nvalue = 0.348", fillcolor="#f9e0ce"] ;
1 [label="x1 <= 0.176\nsquared_error = 0.077\nsamples = 160\nvalue = 0.256", fillcolor="#fbeee4"] ;
0 -> 1 [labeldistance=2.5, labelangle=45, headlabel="True"] ;
2 [label="squared_error = 0.024\nsamples = 32\nvalue = 0.707", fillcolor="#eda977"] ;
1 -> 2 ;
3 [label="squared_error = 0.027\nsamples = 128\nvalue = 0.144", fillcolor="#ffffff"] ;
1 -> 3 ;
4 [label="x1 <= 0.953\nsquared_error = 0.028\nsamples = 40\nvalue = 0.715", fillcolor="#eda775"] ;
0 -> 4 [labeldistance=2.5, labelangle=-45, headlabel="False"] ;
5 [label="squared_error = 0.013\nsamples = 32\nvalue = 0.652", fillcolor="#efb184"] ;
4 -> 5 ;
6 [label="squared_error = 0.012\nsamples = 8\nvalue = 0.964", fillcolor="#e58139"] ;
4 -> 6 ;
}